Language model created by QuickLM on Tue Apr 19 17:28:17 EDT 2016
Copyright (c) 1996-2010 Carnegie Mellon University and Alexander I. Rudnicky

The model is in standard ARPA format, designed by Doug Paul while he was at MITRE.

The code that was used to produce this language model is available in Open Source.
Please visit http://www.speech.cs.cmu.edu/tools/ for more information

The (fixed) discount mass is 0.5. The backoffs are computed using the ratio method.
This model based on a corpus of 40 sentences and 42 words

\data\
ngram 1=42
ngram 2=80
ngram 3=44

\1-grams:
-0.7924 </s> -0.3010
-0.7924 <s> -0.2246
-2.3945 AND -0.2246
-2.3945 BACKWARD -0.2246
-2.3945 CENTIMETERS -0.2246
-2.3945 CIRCLE -0.2246
-2.3945 DANCE -0.2246
-2.3945 DEGREES -0.2246
-2.3945 DRAW -0.2246
-2.3945 EIGHT -0.2246
-2.3945 EIGHTY -0.2246
-2.3945 FEET -0.2246
-2.3945 FIFTY -0.2246
-2.3945 FIVE -0.2246
-2.3945 FORTY -0.2246
-2.3945 FORWARD -0.2246
-2.3945 FOUR -0.2246
-2.3945 HUNDRED -0.2246
-2.3945 INCHES -0.2246
-2.3945 LEFT -0.2246
-2.3945 METERS -0.2246
-1.9173 MOVE -0.2204
-2.3945 NINE -0.2246
-2.3945 NINETY -0.2246
-2.3945 ONE -0.2246
-2.3945 RADIANS -0.2246
-2.3945 RIGHT -0.2246
-2.3945 SEVEN -0.2246
-2.3945 SEVENTY -0.2246
-2.3945 SIX -0.2246
-2.3945 SIXTY -0.2246
-2.3945 SPIN -0.2246
-2.3945 SQUARE -0.2246
-2.3945 STOP -0.2246
-2.3945 TEN -0.2246
-2.3945 THEN -0.2246
-2.3945 THIRTY -0.2246
-2.3945 THREE -0.2246
-2.3945 TRIANGLE -0.2246
-1.9173 TURN -0.2204
-2.3945 TWENTY -0.2246
-2.3945 TWO -0.2246

\2-grams:
-1.9031 <s> AND 0.0000
-1.9031 <s> CENTIMETERS 0.0000
-1.9031 <s> CIRCLE 0.0000
-1.9031 <s> DANCE 0.0000
-1.9031 <s> DEGREES 0.0000
-1.9031 <s> DRAW 0.0000
-1.9031 <s> EIGHT 0.0000
-1.9031 <s> EIGHTY 0.0000
-1.9031 <s> FEET 0.0000
-1.9031 <s> FIFTY 0.0000
-1.9031 <s> FIVE 0.0000
-1.9031 <s> FORTY 0.0000
-1.9031 <s> FOUR 0.0000
-1.9031 <s> HUNDRED 0.0000
-1.9031 <s> INCHES 0.0000
-1.9031 <s> METERS 0.0000
-1.4260 <s> MOVE 0.0000
-1.9031 <s> NINE 0.0000
-1.9031 <s> NINETY 0.0000
-1.9031 <s> ONE 0.0000
-1.9031 <s> RADIANS 0.0000
-1.9031 <s> SEVEN 0.0000
-1.9031 <s> SEVENTY 0.0000
-1.9031 <s> SIX 0.0000
-1.9031 <s> SIXTY 0.0000
-1.9031 <s> SPIN 0.0000
-1.9031 <s> SQUARE 0.0000
-1.9031 <s> STOP 0.0000
-1.9031 <s> TEN 0.0000
-1.9031 <s> THEN 0.0000
-1.9031 <s> THIRTY 0.0000
-1.9031 <s> THREE 0.0000
-1.9031 <s> TRIANGLE 0.0000
-1.4260 <s> TURN 0.0000
-1.9031 <s> TWENTY 0.0000
-1.9031 <s> TWO 0.0000
-0.3010 AND </s> -0.3010
-0.3010 BACKWARD </s> -0.3010
-0.3010 CENTIMETERS </s> -0.3010
-0.3010 CIRCLE </s> -0.3010
-0.3010 DANCE </s> -0.3010
-0.3010 DEGREES </s> -0.3010
-0.3010 DRAW </s> -0.3010
-0.3010 EIGHT </s> -0.3010
-0.3010 EIGHTY </s> -0.3010
-0.3010 FEET </s> -0.3010
-0.3010 FIFTY </s> -0.3010
-0.3010 FIVE </s> -0.3010
-0.3010 FORTY </s> -0.3010
-0.3010 FORWARD </s> -0.3010
-0.3010 FOUR </s> -0.3010
-0.3010 HUNDRED </s> -0.3010
-0.3010 INCHES </s> -0.3010
-0.3010 LEFT </s> -0.3010
-0.3010 METERS </s> -0.3010
-0.7782 MOVE </s> -0.3010
-0.7782 MOVE BACKWARD 0.0000
-0.7782 MOVE FORWARD 0.0000
-0.3010 NINE </s> -0.3010
-0.3010 NINETY </s> -0.3010
-0.3010 ONE </s> -0.3010
-0.3010 RADIANS </s> -0.3010
-0.3010 RIGHT </s> -0.3010
-0.3010 SEVEN </s> -0.3010
-0.3010 SEVENTY </s> -0.3010
-0.3010 SIX </s> -0.3010
-0.3010 SIXTY </s> -0.3010
-0.3010 SPIN </s> -0.3010
-0.3010 SQUARE </s> -0.3010
-0.3010 STOP </s> -0.3010
-0.3010 TEN </s> -0.3010
-0.3010 THEN </s> -0.3010
-0.3010 THIRTY </s> -0.3010
-0.3010 THREE </s> -0.3010
-0.3010 TRIANGLE </s> -0.3010
-0.7782 TURN </s> -0.3010
-0.7782 TURN LEFT 0.0000
-0.7782 TURN RIGHT 0.0000
-0.3010 TWENTY </s> -0.3010
-0.3010 TWO </s> -0.3010

\3-grams:
-0.3010 <s> AND </s>
-0.3010 <s> CENTIMETERS </s>
-0.3010 <s> CIRCLE </s>
-0.3010 <s> DANCE </s>
-0.3010 <s> DEGREES </s>
-0.3010 <s> DRAW </s>
-0.3010 <s> EIGHT </s>
-0.3010 <s> EIGHTY </s>
-0.3010 <s> FEET </s>
-0.3010 <s> FIFTY </s>
-0.3010 <s> FIVE </s>
-0.3010 <s> FORTY </s>
-0.3010 <s> FOUR </s>
-0.3010 <s> HUNDRED </s>
-0.3010 <s> INCHES </s>
-0.3010 <s> METERS </s>
-0.7782 <s> MOVE </s>
-0.7782 <s> MOVE BACKWARD
-0.7782 <s> MOVE FORWARD
-0.3010 <s> NINE </s>
-0.3010 <s> NINETY </s>
-0.3010 <s> ONE </s>
-0.3010 <s> RADIANS </s>
-0.3010 <s> SEVEN </s>
-0.3010 <s> SEVENTY </s>
-0.3010 <s> SIX </s>
-0.3010 <s> SIXTY </s>
-0.3010 <s> SPIN </s>
-0.3010 <s> SQUARE </s>
-0.3010 <s> STOP </s>
-0.3010 <s> TEN </s>
-0.3010 <s> THEN </s>
-0.3010 <s> THIRTY </s>
-0.3010 <s> THREE </s>
-0.3010 <s> TRIANGLE </s>
-0.7782 <s> TURN </s>
-0.7782 <s> TURN LEFT
-0.7782 <s> TURN RIGHT
-0.3010 <s> TWENTY </s>
-0.3010 <s> TWO </s>
-0.3010 MOVE BACKWARD </s>
-0.3010 MOVE FORWARD </s>
-0.3010 TURN LEFT </s>
-0.3010 TURN RIGHT </s>

\end\
